<?xml version="1.0"?>
<opencv_storage>
<cascade>
  <stageType>BOOST</stageType>
  <featureType>LBP</featureType>
  <height>20</height>
  <width>20</width>
  <stageParams>
    <boostType>GAB</boostType>
    <minHitRate>9.9900001287460327e-01</minHitRate>
    <maxFalseAlarm>2.0000000298023224e-01</maxFalseAlarm>
    <weightTrimRate>9.4999999999999996e-01</weightTrimRate>
    <maxDepth>1</maxDepth>
    <maxWeakCount>100</maxWeakCount></stageParams>
  <featureParams>
    <maxCatCount>256</maxCatCount>
    <featSize>1</featSize></featureParams>
  <stageNum>10</stageNum>
  <stages>
    <!-- stage 0 -->
    <_>
      <maxWeakCount>3</maxWeakCount>
      <stageThreshold>-8.0699795484542847e-01</stageThreshold>
      <weakClassifiers>
        <_>
          <internalNodes>
            0 -1 25 -82447873 -709656447 1124122755 -552398719
            -2138455921 -376897526 65578 456120379</internalNodes>
          <leafValues>
            -9.9336284399032593e-01 9.0553432703018188e-01</leafValues></_>
        <_>
          <internalNodes>
            0 -1 46 1560795795 3 268435475 889389067 -1568419591
            285757466 -1031764853 -73410357</internalNodes>
          <leafValues>
            -8.7088066339492798e-01 8.1305634975433350e-01</leafValues></_>
        <_>
          <internalNodes>
            0 -1 5 -234163470 -117399418 -1258274672 -1739046400
            -2147427710 -33554112 -1979594574 -2903773</internalNodes>
          <leafValues>
            -8.4165161848068237e-01 8.2214832305908203e-01</leafValues></_></weakClassifiers></_>
    <!-- stage 1 -->
    <_>
      <maxWeakCount>4</maxWeakCount>
      <stageThreshold>-1.6356178522109985e+00</stageThreshold>
      <weakClassifiers>
        <_>
          <internalNodes>
            0 -1 37 369897055 285586227 1073709055 2139095039 -8388609
            1057488381 -1 -1</internalNodes>
          <leafValues>
            -8.6324787139892578e-01 8.7596899271011353e-01</leafValues></_>
        <_>
          <internalNodes>
            0 -1 18 1392900575 -682507891 294654299 1428095391
            -1476293233 -912752509 196139727 2146380735</internalNodes>
          <leafValues>
            -9.4489181041717529e-01 7.4083334207534790e-01</leafValues></_>
        <_>
          <internalNodes>
            0 -1 45 -33816645 1002060714 -1346392521 733674154
            1069512601 -1073774593 2147442639 -1</internalNodes>
          <leafValues>
            -7.5167274475097656e-01 8.4649586677551270e-01</leafValues></_>
        <_>
          <internalNodes>
            0 -1 32 -721291180 -719749000 421560409 -1113767796
            -1644115832 -1207424896 -2012698200 -55727921</internalNodes>
          <leafValues>
            -8.1502234935760498e-01 7.6340371370315552e-01</leafValues></_></weakClassifiers></_>
    <!-- stage 2 -->
    <_>
      <maxWeakCount>5</maxWeakCount>
      <stageThreshold>-7.6140141487121582e-01</stageThreshold>
      <weakClassifiers>
        <_>
          <internalNodes>
            0 -1 21 -723324449 -780086309 -1023373545 2042188759
            -243222038 -528351095 -239052133 2144539643</internalNodes>
          <leafValues>
            -9.5652174949645996e-01 7.1861469745635986e-01</leafValues></_>
        <_>
          <internalNodes>
            0 -1 60 -708448126 -249708414 -1073642940 -1052000113
            -1066808158 -402603895 -1373058902 -454044213</internalNodes>
          <leafValues>
            -7.6757377386093140e-01 7.0162838697433472e-01</leafValues></_>
        <_>
          <internalNodes>
            0 -1 22 -648544292 -251534975 -992738535 -920401655
            1346461948 1431388416 -796315639 -607523937</internalNodes>
          <leafValues>
            -7.3447740077972412e-01 6.9972991943359375e-01</leafValues></_>
        <_>
          <internalNodes>
            0 -1 55 -3422297 865960859 -788463583 227136645 1095585818
            159432704 310460416 -49854260</internalNodes>
          <leafValues>
            -7.4206542968750000e-01 7.1175074577331543e-01</leafValues></_>
        <_>
          <internalNodes>
            0 -1 3 -67109073 -164827137 -1147139 -1192230917 -590033
            -162726017 -305 -186647041</internalNodes>
          <leafValues>
            -6.7010682821273804e-01 7.8971099853515625e-01</leafValues></_></weakClassifiers></_>
    <!-- stage 3 -->
    <_>
      <maxWeakCount>6</maxWeakCount>
      <stageThreshold>-2.8035786747932434e-01</stageThreshold>
      <weakClassifiers>
        <_>
          <internalNodes>
            0 -1 44 -46137409 990771095 1359065279 1026548173 -853757702
            941924576 -867503986 1865144527</internalNodes>
          <leafValues>
            -8.6084586381912231e-01 7.1945303678512573e-01</leafValues></_>
        <_>
          <internalNodes>
            0 -1 10 -1929380873 -1411674124 -805310466 -946342156
            83877371 -1075838985 234216375 -1058028559</internalNodes>
          <leafValues>
            -7.0569461584091187e-01 7.6712554693222046e-01</leafValues></_>
        <_>
          <internalNodes>
            0 -1 33 -251146041 -1713798627 -2147277947 -782512763
            -2130595378 -1195666130 -1441952370 -146279802</internalNodes>
          <leafValues>
            -7.2468626499176025e-01 6.8018603324890137e-01</leafValues></_>
        <_>
          <internalNodes>
            0 -1 62 -536873043 128647099 226283505 1601936881
            -1652580355 -1082720260 -462040000 -1074266283</internalNodes>
          <leafValues>
            -6.7500120401382446e-01 7.5679802894592285e-01</leafValues></_>
        <_>
          <internalNodes>
            0 -1 26 -1056337645 -1861155821 293634435 1501626700
            -1610577266 -279411705 -1999656310 -686825718</internalNodes>
          <leafValues>
            -7.0562416315078735e-01 6.2591153383255005e-01</leafValues></_>
        <_>
          <internalNodes>
            0 -1 19 -175314945 -230567088 -1862140607 -175073197
            1267421023 243274369 1489132506 -544545814</internalNodes>
          <leafValues>
            -7.8457927703857422e-01 6.2815928459167480e-01</leafValues></_></weakClassifiers></_>
    <!-- stage 4 -->
    <_>
      <maxWeakCount>7</maxWeakCount>
      <stageThreshold>-7.7687668800354004e-01</stageThreshold>
      <weakClassifiers>
        <_>
          <internalNodes>
            0 -1 7 1380008413 -124762641 -2142220291 196086852
            -2011166209 -641087317 -1165923589 1273646015</internalNodes>
          <leafValues>
            -8.6752825975418091e-01 6.4552706480026245e-01</leafValues></_>
        <_>
          <internalNodes>
            0 -1 61 -171704993 374970141 -805235141 -757296987
            -761587185 84557091 -222671346 -118769093</internalNodes>
          <leafValues>
            -6.7373031377792358e-01 6.6694009304046631e-01</leafValues></_>
        <_>
          <internalNodes>
            0 -1 42 423827807 1574113419 356590682 -538978610 -880180596
            -1680922008 -5323894 -263193846</internalNodes>
          <leafValues>
            -7.6022320985794067e-01 5.9205424785614014e-01</leafValues></_>
        <_>
          <internalNodes>
            0 -1 39 1060900157 -1515525 1073577371 -10076164 805084412
            -8601921 -23658820 -589246824</internalNodes>
          <leafValues>
            -6.3185977935791016e-01 7.4914610385894775e-01</leafValues></_>
        <_>
          <internalNodes>
            0 -1 12 -933568274 -264186330 1359009344 -213792766
            -2113683326 -117407661 536989766 -213713150</internalNodes>
          <leafValues>
            -7.6337808370590210e-01 5.8588725328445435e-01</leafValues></_>
        <_>
          <internalNodes>
            0 -1 54 -738339617 -720316029 -2063597557 -1651851123
            -930891761 134271624 -259538805 -572533773</internalNodes>
          <leafValues>
            -5.7616043090820313e-01 7.4876344203948975e-01</leafValues></_>
        <_>
          <internalNodes>
            0 -1 0 17158335 562106627 268468403 -783611664 1275300567
            27494656 -2071745545 -271875353</internalNodes>
          <leafValues>
            -6.6233760118484497e-01 6.4227759838104248e-01</leafValues></_></weakClassifiers></_>
    <!-- stage 5 -->
    <_>
      <maxWeakCount>9</maxWeakCount>
      <stageThreshold>-5.0833964347839355e-01</stageThreshold>
      <weakClassifiers>
        <_>
          <internalNodes>
            0 -1 8 -8450769 -397313 -16818433 706789295 -62123
            -537427977 -536875009 -737085441</internalNodes>
          <leafValues>
            -5.7065802812576294e-01 7.3757839202880859e-01</leafValues></_>
        <_>
          <internalNodes>
            0 -1 49 633163569 -425988 2113830911 -33702020 -1073946660
            -213122 -1076838692 -1134555996</internalNodes>
          <leafValues>
            -5.7105159759521484e-01 6.7493879795074463e-01</leafValues></_>
        <_>
          <internalNodes>
            0 -1 17 -264561313 -648213169 1360078163 2001028951
            -1634760562 -1104242581 394504911 938725120</internalNodes>
          <leafValues>
            -8.7107318639755249e-01 4.9956992268562317e-01</leafValues></_>
        <_>
          <internalNodes>
            0 -1 31 459539 524253015 2003693439 925376276 485961695
            -208899 -151016450 -538925140</internalNodes>
          <leafValues>
            -5.9529471397399902e-01 6.5478217601776123e-01</leafValues></_>
        <_>
          <internalNodes>
            0 -1 56 -168299073 603434219 -4227137 -20481 11476498
            -1073741825 805246943 -1</internalNodes>
          <leafValues>
            -5.7513821125030518e-01 6.8178462982177734e-01</leafValues></_>
        <_>
          <internalNodes>
            0 -1 65 1391424631 1941390087 1342473811 1921970257
            -1062843618 -637337590 -422941746 -701862289</internalNodes>
          <leafValues>
            -6.8466931581497192e-01 5.8843058347702026e-01</leafValues></_>
        <_>
          <internalNodes>
            0 -1 23 -109063297 -1073647518 84049937 -251527152
            -804464632 1131520 -24575744 -222588766</internalNodes>
          <leafValues>
            -5.4163628816604614e-01 6.8014347553253174e-01</leafValues></_>
        <_>
          <internalNodes>
            0 -1 52 -1838479361 1058576272 -304603657 -1122373440
            80296686 -420837239 -293327731 -38876542</internalNodes>
          <leafValues>
            -5.7412499189376831e-01 6.8216454982757568e-01</leafValues></_>
        <_>
          <internalNodes>
            0 -1 64 -1094721861 1056701684 1065295871 -75500042
            197109678 -1107429444 502617461 -570960427</internalNodes>
          <leafValues>
            -5.8740085363388062e-01 6.6415703296661377e-01</leafValues></_></weakClassifiers></_>
    <!-- stage 6 -->
    <_>
      <maxWeakCount>9</maxWeakCount>
      <stageThreshold>-6.3712084293365479e-01</stageThreshold>
      <weakClassifiers>
        <_>
          <internalNodes>
            0 -1 6 -1907363985 -272891981 1862270975 -9699469 -838864941
            805306359 1154482175 -941107753</internalNodes>
          <leafValues>
            -3.4584012627601624e-01 8.0270576477050781e-01</leafValues></_>
        <_>
          <internalNodes>
            0 -1 13 -33598769 -77693201 2130247423 1913712375 -16822436
            -59245473 -25231361 -260898817</internalNodes>
          <leafValues>
            -5.1477712392807007e-01 6.6397768259048462e-01</leafValues></_>
        <_>
          <internalNodes>
            0 -1 36 -705669675 -715841275 -1067187787 -553291137
            -716083169 -725450560 822251583 1059050975</internalNodes>
          <leafValues>
            -8.4057593345642090e-01 4.3453511595726013e-01</leafValues></_>
        <_>
          <internalNodes>
            0 -1 66 -73829033 1062569819 -771604386 -223095349 734136612
            2032780473 -123306754 -84153841</internalNodes>
          <leafValues>
            -5.8638674020767212e-01 6.0022997856140137e-01</leafValues></_>
        <_>
          <internalNodes>
            0 -1 57 -100673797 1033091334 -1936914147 -101023343
            64164375 -373243648 549459142 -105748305</internalNodes>
          <leafValues>
            -6.1901754140853882e-01 5.5761724710464478e-01</leafValues></_>
        <_>
          <internalNodes>
            0 -1 24 -91687981 -661516019 -251358887 -218066935
            2053672881 1519009921 -123397872 -37510476</internalNodes>
          <leafValues>
            -6.1370426416397095e-01 5.4016715288162231e-01</leafValues></_>
        <_>
          <internalNodes>
            0 -1 58 -1366363653 -1747329835 -1090519879 -1074427271
            -101067588 -545259908 821948496 -638204079</internalNodes>
          <leafValues>
            -5.5416840314865112e-01 5.8533304929733276e-01</leafValues></_>
        <_>
          <internalNodes>
            0 -1 45 -239863878 420905992 -1873420173 772968460
            1082148344 1233160864 1480681679 -88030527</internalNodes>
          <leafValues>
            -6.4892232418060303e-01 4.9068841338157654e-01</leafValues></_>
        <_>
          <internalNodes>
            0 -1 9 665501695 805306104 -1073741827 -262332 -813799427
            1811939317 1341644799 -16790416</internalNodes>
          <leafValues>
            -5.6249070167541504e-01 6.4347332715988159e-01</leafValues></_></weakClassifiers></_>
    <!-- stage 7 -->
    <_>
      <maxWeakCount>9</maxWeakCount>
      <stageThreshold>-7.5022959709167480e-01</stageThreshold>
      <weakClassifiers>
        <_>
          <internalNodes>
            0 -1 50 301208061 1072971768 -33591297 -1243808771 939407357
            -1073987585 -180227 -196628</internalNodes>
          <leafValues>
            -3.7397634983062744e-01 7.4224090576171875e-01</leafValues></_>
        <_>
          <internalNodes>
            0 -1 69 -666894853 -1883263046 2147458533 -1913139983
            1329385373 229440639 224318705 -587211419</internalNodes>
          <leafValues>
            -5.1850706338882446e-01 6.2588274478912354e-01</leafValues></_>
        <_>
          <internalNodes>
            0 -1 47 1359990903 17051648 -1056931625 -1123170676
            -1065254673 -439646518 -494894942 -276231217</internalNodes>
          <leafValues>
            -7.4552428722381592e-01 4.7750395536422729e-01</leafValues></_>
        <_>
          <internalNodes>
            0 -1 41 -245767778 -1165852672 -1543340032 167940296
            -251306747 -1811885822 -368618160 -85396776</internalNodes>
          <leafValues>
            -6.1472076177597046e-01 5.2654498815536499e-01</leafValues></_>
        <_>
          <internalNodes>
            0 -1 2 -1022292689 -250396655 83936143 -74251901 1535128479
            -376946007 950722495 -125155189</internalNodes>
          <leafValues>
            -5.7473051548004150e-01 5.7898843288421631e-01</leafValues></_>
        <_>
          <internalNodes>
            0 -1 40 -979401129 496705836 336699543 -1819473773 941310390
            -613572600 82568174 283103114</internalNodes>
          <leafValues>
            -8.2695358991622925e-01 3.8227245211601257e-01</leafValues></_>
        <_>
          <internalNodes>
            0 -1 28 -614739881 2027929343 1308611575 -620756993
            -805056256 -555814932 1524503105 -572531361</internalNodes>
          <leafValues>
            -5.4288446903228760e-01 6.1079055070877075e-01</leafValues></_>
        <_>
          <internalNodes>
            0 -1 68 -695732269 -157728639 1090535651 1145389193
            -2142609344 1417805984 1124253955 -1024997149</internalNodes>
          <leafValues>
            -5.9683728218078613e-01 5.9403568506240845e-01</leafValues></_>
        <_>
          <internalNodes>
            0 -1 51 1564946455 839913621 84935069 -1688730599
            -1568118712 2040727593 -335375734 -391456637</internalNodes>
          <leafValues>
            -5.8634269237518311e-01 6.0293281078338623e-01</leafValues></_></weakClassifiers></_>
    <!-- stage 8 -->
    <_>
      <maxWeakCount>10</maxWeakCount>
      <stageThreshold>-4.9412736296653748e-01</stageThreshold>
      <weakClassifiers>
        <_>
          <internalNodes>
            0 -1 11 -2005991697 -1356075154 -251658497 -1008746953
            1459421182 -33554593 78904959 -528483017</internalNodes>
          <leafValues>
            -3.8625362515449524e-01 7.1123540401458740e-01</leafValues></_>
        <_>
          <internalNodes>
            0 -1 38 287742943 1145057616 -1 -8388609 -1082655851
            -42108937 -1 -1</internalNodes>
          <leafValues>
            -5.1909160614013672e-01 6.3169896602630615e-01</leafValues></_>
        <_>
          <internalNodes>
            0 -1 4 -1659112033 1896547333 -1877870627 -1877929327
            -2012053395 2072649752 -375254787 -200558101</internalNodes>
          <leafValues>
            -5.4194277524948120e-01 5.4860538244247437e-01</leafValues></_>
        <_>
          <internalNodes>
            0 -1 20 -124718608 -318461952 -2079619819 -272334830
            -1912500736 -1912537054 -1585410647 -5496064</internalNodes>
          <leafValues>
            -6.4348244667053223e-01 4.5770406723022461e-01</leafValues></_>
        <_>
          <internalNodes>
            0 -1 43 -338961485 -1568149374 -1601654253 947963591
            1317684743 67223592 722100546 -343149873</internalNodes>
          <leafValues>
            -6.0647857189178467e-01 4.7477528452873230e-01</leafValues></_>
        <_>
          <internalNodes>
            0 -1 63 2133546519 -109424595 -1862151690 1378123787
            17186926 -603832311 -510764402 -367119605</internalNodes>
          <leafValues>
            -6.7025572061538696e-01 4.3859386444091797e-01</leafValues></_>
        <_>
          <internalNodes>
            0 -1 15 -179789302 -250564538 1107886105 -247360943
            -2139092856 37024 -1608480310 -16392238</internalNodes>
          <leafValues>
            -5.7501417398452759e-01 5.0583273172378540e-01</leafValues></_>
        <_>
          <internalNodes>
            0 -1 35 857809721 910229776 587288973 956374273 -1627282516
            -133611504 277483548 -64295409</internalNodes>
          <leafValues>
            -5.9923291206359863e-01 4.8332881927490234e-01</leafValues></_>
        <_>
          <internalNodes>
            0 -1 53 -749020841 -552283839 16777493 134254923 -1027489663
            1682296966 -716652325 1601553615</internalNodes>
          <leafValues>
            -6.8848121166229248e-01 4.0165451169013977e-01</leafValues></_>
        <_>
          <internalNodes>
            0 -1 16 -1593772080 366003504 -535657451 -908603124 8768767
            1659408451 1216989596 -922091248</internalNodes>
          <leafValues>
            -7.4989551305770874e-01 4.2679646611213684e-01</leafValues></_></weakClassifiers></_>
    <!-- stage 9 -->
    <_>
      <maxWeakCount>9</maxWeakCount>
      <stageThreshold>-4.3988522887229919e-01</stageThreshold>
      <weakClassifiers>
        <_>
          <internalNodes>
            0 -1 1 -285212877 183480313 939523954 801112050 1291845623
            1845493750 74938225 -889192969</internalNodes>
          <leafValues>
            -5.4322302341461182e-01 7.3145902156829834e-01</leafValues></_>
        <_>
          <internalNodes>
            0 -1 29 1162203475 -188678316 168491862 2128474076 21495824
            -388736688 260527063 -537405449</internalNodes>
          <leafValues>
            -5.5818879604339600e-01 6.5603655576705933e-01</leafValues></_>
        <_>
          <internalNodes>
            0 -1 67 -318771622 2004254583 -251923420 1894645484
            922123854 -8978569 -16845093 -1208223745</internalNodes>
          <leafValues>
            -5.3638184070587158e-01 7.0155686140060425e-01</leafValues></_>
        <_>
          <internalNodes>
            0 -1 59 -1363515393 -1275084802 805068285 -1220788308
            -200708 -1346867331 -1120043778 -1432598952</internalNodes>
          <leafValues>
            -5.3888773918151855e-01 6.7070680856704712e-01</leafValues></_>
        <_>
          <internalNodes>
            0 -1 30 -611198471 271073472 26330140 1359020112 -1744074622
            67108865 -1852702206 353845765</internalNodes>
          <leafValues>
            -5.7854992151260376e-01 6.1517822742462158e-01</leafValues></_>
        <_>
          <internalNodes>
            0 -1 34 1461310421 -884707264 -65800941 1937839684 754975904
            -10472352 270012444 -1928170230</internalNodes>
          <leafValues>
            -5.8399802446365356e-01 6.4531141519546509e-01</leafValues></_>
        <_>
          <internalNodes>
            0 -1 14 -276893866 -26476801 -16842850 1622212287 -411066866
            1591705463 -16908546 -181141649</internalNodes>
          <leafValues>
            -5.9685444831848145e-01 6.2039113044738770e-01</leafValues></_>
        <_>
          <internalNodes>
            0 -1 48 -797388454 335810816 -503316141 1963524361 536887356
            -1040175104 134236911 738955371</internalNodes>
          <leafValues>
            -6.2201482057571411e-01 5.8862829208374023e-01</leafValues></_>
        <_>
          <internalNodes>
            0 -1 27 324280403 -113225648 805309696 -788529152
            -1996412744 1275101187 -2013208320 -2013230974</internalNodes>
          <leafValues>
            -7.2969263792037964e-01 5.1876437664031982e-01</leafValues></_></weakClassifiers></_></stages>
  <features>
    <_>
      <rect>
        0 0 3 3</rect></_>
    <_>
      <rect>
        0 3 2 3</rect></_>
    <_>
      <rect>
        0 8 5 2</rect></_>
    <_>
      <rect>
        0 10 2 2</rect></_>
    <_>
      <rect>
        0 14 3 1</rect></_>
    <_>
      <rect>
        1 0 5 4</rect></_>
    <_>
      <rect>
        1 1 2 4</rect></_>
    <_>
      <rect>
        1 5 5 3</rect></_>
    <_>
      <rect>
        1 11 2 3</rect></_>
    <_>
      <rect>
        2 0 3 2</rect></_>
    <_>
      <rect>
        2 2 1 3</rect></_>
    <_>
      <rect>
        2 2 1 4</rect></_>
    <_>
      <rect>
        2 3 2 4</rect></_>
    <_>
      <rect>
        2 11 1 2</rect></_>
    <_>
      <rect>
        2 13 1 1</rect></_>
    <_>
      <rect>
        3 3 2 4</rect></_>
    <_>
      <rect>
        4 1 2 2</rect></_>
    <_>
      <rect>
        4 3 4 3</rect></_>
    <_>
      <rect>
        4 3 4 4</rect></_>
    <_>
      <rect>
        4 7 3 3</rect></_>
    <_>
      <rect>
        5 1 4 3</rect></_>
    <_>
      <rect>
        5 4 3 4</rect></_>
    <_>
      <rect>
        5 5 2 5</rect></_>
    <_>
      <rect>
        5 7 2 4</rect></_>
    <_>
      <rect>
        5 9 2 2</rect></_>
    <_>
      <rect>
        6 4 4 4</rect></_>
    <_>
      <rect>
        6 5 3 2</rect></_>
    <_>
      <rect>
        6 9 3 2</rect></_>
    <_>
      <rect>
        6 11 2 2</rect></_>
    <_>
      <rect>
        6 11 3 2</rect></_>
    <_>
      <rect>
        6 13 1 1</rect></_>
    <_>
      <rect>
        7 1 2 1</rect></_>
    <_>
      <rect>
        7 1 4 3</rect></_>
    <_>
      <rect>
        7 3 2 3</rect></_>
    <_>
      <rect>
        7 4 2 1</rect></_>
    <_>
      <rect>
        7 4 4 2</rect></_>
    <_>
      <rect>
        7 4 4 4</rect></_>
    <_>
      <rect>
        7 8 3 3</rect></_>
    <_>
      <rect>
        7 10 3 2</rect></_>
    <_>
      <rect>
        7 17 2 1</rect></_>
    <_>
      <rect>
        8 3 2 3</rect></_>
    <_>
      <rect>
        8 5 1 5</rect></_>
    <_>
      <rect>
        8 5 2 2</rect></_>
    <_>
      <rect>
        8 6 1 4</rect></_>
    <_>
      <rect>
        8 7 3 3</rect></_>
    <_>
      <rect>
        8 8 1 2</rect></_>
    <_>
      <rect>
        8 8 3 3</rect></_>
    <_>
      <rect>
        8 10 3 2</rect></_>
    <_>
      <rect>
        8 14 2 1</rect></_>
    <_>
      <rect>
        8 17 2 1</rect></_>
    <_>
      <rect>
        9 0 1 1</rect></_>
    <_>
      <rect>
        9 1 3 1</rect></_>
    <_>
      <rect>
        9 10 2 1</rect></_>
    <_>
      <rect>
        10 4 2 5</rect></_>
    <_>
      <rect>
        10 5 2 5</rect></_>
    <_>
      <rect>
        10 7 1 3</rect></_>
    <_>
      <rect>
        10 8 1 3</rect></_>
    <_>
      <rect>
        10 9 1 2</rect></_>
    <_>
      <rect>
        10 16 2 1</rect></_>
    <_>
      <rect>
        10 17 1 1</rect></_>
    <_>
      <rect>
        11 3 3 4</rect></_>
    <_>
      <rect>
        14 3 2 2</rect></_>
    <_>
      <rect>
        14 8 2 4</rect></_>
    <_>
      <rect>
        15 2 1 2</rect></_>
    <_>
      <rect>
        15 10 1 3</rect></_>
    <_>
      <rect>
        16 1 1 3</rect></_>
    <_>
      <rect>
        16 4 1 1</rect></_>
    <_>
      <rect>
        16 5 1 1</rect></_>
    <_>
      <rect>
        16 6 1 3</rect></_>
    <_>
      <rect>
        16 9 1 3</rect></_></features></cascade>
</opencv_storage>
