<?xml version="1.0"?>
<opencv_storage>
<cascade>
  <stageType>BOOST</stageType>
  <featureType>HAAR</featureType>
  <height>24</height>
  <width>24</width>
  <stageParams>
    <boostType>GAB</boostType>
    <minHitRate>9.9500000476837158e-01</minHitRate>
    <maxFalseAlarm>4.0000000596046448e-01</maxFalseAlarm>
    <weightTrimRate>9.4999999999999996e-01</weightTrimRate>
    <maxDepth>1</maxDepth>
    <maxWeakCount>100</maxWeakCount></stageParams>
  <featureParams>
    <maxCatCount>0</maxCatCount>
    <featSize>1</featSize>
    <mode>BASIC</mode></featureParams>
  <stageNum>12</stageNum>
  <stages>
    <!-- stage 0 -->
    <_>
      <maxWeakCount>3</maxWeakCount>
      <stageThreshold>-1.0610169172286987e+00</stageThreshold>
      <weakClassifiers>
        <_>
          <internalNodes>
            0 -1 3 3.1337231397628784e-02</internalNodes>
          <leafValues>
            -8.8721245527267456e-01 8.4940987825393677e-01</leafValues></_>
        <_>
          <internalNodes>
            0 -1 66 -1.5455976128578186e-02</internalNodes>
          <leafValues>
            7.6135784387588501e-01 -8.7830853462219238e-01</leafValues></_>
        <_>
          <internalNodes>
            0 -1 25 6.2897324562072754e-02</internalNodes>
          <leafValues>
            -8.5964173078536987e-01 7.0450407266616821e-01</leafValues></_></weakClassifiers></_>
    <!-- stage 1 -->
    <_>
      <maxWeakCount>3</maxWeakCount>
      <stageThreshold>-1.1300164461135864e+00</stageThreshold>
      <weakClassifiers>
        <_>
          <internalNodes>
            0 -1 1 6.1030540615320206e-02</internalNodes>
          <leafValues>
            -8.8844192028045654e-01 6.5427643060684204e-01</leafValues></_>
        <_>
          <internalNodes>
            0 -1 51 4.6262402087450027e-02</internalNodes>
          <leafValues>
            -9.0589463710784912e-01 5.4792368412017822e-01</leafValues></_>
        <_>
          <internalNodes>
            0 -1 33 -5.0380341708660126e-02</internalNodes>
          <leafValues>
            6.6432011127471924e-01 -7.4735963344573975e-01</leafValues></_></weakClassifiers></_>
    <!-- stage 2 -->
    <_>
      <maxWeakCount>5</maxWeakCount>
      <stageThreshold>-1.5440042018890381e+00</stageThreshold>
      <weakClassifiers>
        <_>
          <internalNodes>
            0 -1 17 1.1880436539649963e-01</internalNodes>
          <leafValues>
            -8.4515792131423950e-01 6.6868841648101807e-01</leafValues></_>
        <_>
          <internalNodes>
            0 -1 64 5.2780050784349442e-02</internalNodes>
          <leafValues>
            -7.0602732896804810e-01 6.1734038591384888e-01</leafValues></_>
        <_>
          <internalNodes>
            0 -1 44 4.2411680333316326e-03</internalNodes>
          <leafValues>
            -8.6096173524856567e-01 4.5299512147903442e-01</leafValues></_>
        <_>
          <internalNodes>
            0 -1 7 2.5981346145272255e-02</internalNodes>
          <leafValues>
            -8.1551140546798706e-01 3.7431809306144714e-01</leafValues></_>
        <_>
          <internalNodes>
            0 -1 40 6.1356715857982635e-02</internalNodes>
          <leafValues>
            -8.0863898992538452e-01 3.6969727277755737e-01</leafValues></_></weakClassifiers></_>
    <!-- stage 3 -->
    <_>
      <maxWeakCount>7</maxWeakCount>
      <stageThreshold>-1.4297510385513306e+00</stageThreshold>
      <weakClassifiers>
        <_>
          <internalNodes>
            0 -1 18 2.6623781770467758e-02</internalNodes>
          <leafValues>
            -7.8240740299224854e-01 5.9035223722457886e-01</leafValues></_>
        <_>
          <internalNodes>
            0 -1 42 2.6353981345891953e-02</internalNodes>
          <leafValues>
            -8.2673841714859009e-01 4.3495765328407288e-01</leafValues></_>
        <_>
          <internalNodes>
            0 -1 9 1.0748855769634247e-02</internalNodes>
          <leafValues>
            -6.4997524023056030e-01 4.9005824327468872e-01</leafValues></_>
        <_>
          <internalNodes>
            0 -1 65 -2.1121561527252197e-02</internalNodes>
          <leafValues>
            5.0248217582702637e-01 -6.8983262777328491e-01</leafValues></_>
        <_>
          <internalNodes>
            0 -1 29 7.2764009237289429e-02</internalNodes>
          <leafValues>
            -6.4709776639938354e-01 5.9331941604614258e-01</leafValues></_>
        <_>
          <internalNodes>
            0 -1 23 -7.6918438076972961e-02</internalNodes>
          <leafValues>
            5.6463956832885742e-01 -5.4223620891571045e-01</leafValues></_>
        <_>
          <internalNodes>
            0 -1 6 1.5305284410715103e-02</internalNodes>
          <leafValues>
            -7.8103625774383545e-01 3.6124363541603088e-01</leafValues></_></weakClassifiers></_>
    <!-- stage 4 -->
    <_>
      <maxWeakCount>6</maxWeakCount>
      <stageThreshold>-1.0771893262863159e+00</stageThreshold>
      <weakClassifiers>
        <_>
          <internalNodes>
            0 -1 57 -8.5655182600021362e-02</internalNodes>
          <leafValues>
            5.3504508733749390e-01 -8.4079599380493164e-01</leafValues></_>
        <_>
          <internalNodes>
            0 -1 4 6.5978304482996464e-03</internalNodes>
          <leafValues>
            -5.9602034091949463e-01 6.3020586967468262e-01</leafValues></_>
        <_>
          <internalNodes>
            0 -1 55 -8.9288856834173203e-03</internalNodes>
          <leafValues>
            3.7210783362388611e-01 -7.3658370971679688e-01</leafValues></_>
        <_>
          <internalNodes>
            0 -1 13 -1.6144948313012719e-04</internalNodes>
          <leafValues>
            -9.1271013021469116e-01 2.7876099944114685e-01</leafValues></_>
        <_>
          <internalNodes>
            0 -1 35 2.5803703814744949e-02</internalNodes>
          <leafValues>
            -5.3397881984710693e-01 5.2020490169525146e-01</leafValues></_>
        <_>
          <internalNodes>
            0 -1 26 -7.6102215098217130e-04</internalNodes>
          <leafValues>
            2.9724481701850891e-01 -9.2461621761322021e-01</leafValues></_></weakClassifiers></_>
    <!-- stage 5 -->
    <_>
      <maxWeakCount>5</maxWeakCount>
      <stageThreshold>-1.6428304910659790e+00</stageThreshold>
      <weakClassifiers>
        <_>
          <internalNodes>
            0 -1 70 -6.1282003298401833e-03</internalNodes>
          <leafValues>
            5.3771287202835083e-01 -7.0054537057876587e-01</leafValues></_>
        <_>
          <internalNodes>
            0 -1 0 1.2535010278224945e-01</internalNodes>
          <leafValues>
            -6.8769460916519165e-01 4.1931056976318359e-01</leafValues></_>
        <_>
          <internalNodes>
            0 -1 27 8.7910637259483337e-02</internalNodes>
          <leafValues>
            -8.0914103984832764e-01 3.0217930674552917e-01</leafValues></_>
        <_>
          <internalNodes>
            0 -1 62 6.6835654433816671e-04</internalNodes>
          <leafValues>
            2.6074239611625671e-01 -9.6805399656295776e-01</leafValues></_>
        <_>
          <internalNodes>
            0 -1 46 -1.5322817489504814e-03</internalNodes>
          <leafValues>
            -8.8413834571838379e-01 2.9380822181701660e-01</leafValues></_></weakClassifiers></_>
    <!-- stage 6 -->
    <_>
      <maxWeakCount>4</maxWeakCount>
      <stageThreshold>-9.3395656347274780e-01</stageThreshold>
      <weakClassifiers>
        <_>
          <internalNodes>
            0 -1 67 4.4094145298004150e-02</internalNodes>
          <leafValues>
            -6.2276732921600342e-01 4.8457193374633789e-01</leafValues></_>
        <_>
          <internalNodes>
            0 -1 49 1.5399578260257840e-03</internalNodes>
          <leafValues>
            2.7066370844841003e-01 -9.5972865819931030e-01</leafValues></_>
        <_>
          <internalNodes>
            0 -1 5 1.1041868478059769e-02</internalNodes>
          <leafValues>
            -8.1450909376144409e-01 2.9464340209960938e-01</leafValues></_>
        <_>
          <internalNodes>
            0 -1 54 3.1300730188377202e-04</internalNodes>
          <leafValues>
            -8.7649637460708618e-01 3.1733629107475281e-01</leafValues></_></weakClassifiers></_>
    <!-- stage 7 -->
    <_>
      <maxWeakCount>7</maxWeakCount>
      <stageThreshold>-1.2087333202362061e+00</stageThreshold>
      <weakClassifiers>
        <_>
          <internalNodes>
            0 -1 67 4.0002234280109406e-02</internalNodes>
          <leafValues>
            -6.6726946830749512e-01 4.1194370388984680e-01</leafValues></_>
        <_>
          <internalNodes>
            0 -1 43 -1.9930109847337008e-03</internalNodes>
          <leafValues>
            2.5410658121109009e-01 -9.0465044975280762e-01</leafValues></_>
        <_>
          <internalNodes>
            0 -1 16 1.3298007845878601e-01</internalNodes>
          <leafValues>
            -5.6848549842834473e-01 4.7581899166107178e-01</leafValues></_>
        <_>
          <internalNodes>
            0 -1 63 -1.0600209236145020e-02</internalNodes>
          <leafValues>
            3.5047772526741028e-01 -8.5313087701797485e-01</leafValues></_>
        <_>
          <internalNodes>
            0 -1 38 2.7462258003652096e-03</internalNodes>
          <leafValues>
            2.5466585159301758e-01 -9.1504490375518799e-01</leafValues></_>
        <_>
          <internalNodes>
            0 -1 31 7.3012895882129669e-04</internalNodes>
          <leafValues>
            1.4193858206272125e-01 -9.5408821105957031e-01</leafValues></_>
        <_>
          <internalNodes>
            0 -1 37 2.9788962565362453e-03</internalNodes>
          <leafValues>
            -8.8197731971740723e-01 2.2944153845310211e-01</leafValues></_></weakClassifiers></_>
    <!-- stage 8 -->
    <_>
      <maxWeakCount>7</maxWeakCount>
      <stageThreshold>-1.1057491302490234e+00</stageThreshold>
      <weakClassifiers>
        <_>
          <internalNodes>
            0 -1 15 7.8796580433845520e-02</internalNodes>
          <leafValues>
            -6.8868404626846313e-01 4.5875096321105957e-01</leafValues></_>
        <_>
          <internalNodes>
            0 -1 39 2.3063072934746742e-02</internalNodes>
          <leafValues>
            -4.7558125853538513e-01 5.6917583942413330e-01</leafValues></_>
        <_>
          <internalNodes>
            0 -1 21 2.3466140031814575e-02</internalNodes>
          <leafValues>
            -8.1553632020950317e-01 3.0828848481178284e-01</leafValues></_>
        <_>
          <internalNodes>
            0 -1 12 3.9538433775305748e-03</internalNodes>
          <leafValues>
            -9.2254787683486938e-01 2.9410552978515625e-01</leafValues></_>
        <_>
          <internalNodes>
            0 -1 60 3.0214693397283554e-02</internalNodes>
          <leafValues>
            -7.6144641637802124e-01 2.2013457119464874e-01</leafValues></_>
        <_>
          <internalNodes>
            0 -1 56 1.1898195371031761e-03</internalNodes>
          <leafValues>
            1.9807949662208557e-01 -8.0228984355926514e-01</leafValues></_>
        <_>
          <internalNodes>
            0 -1 59 -1.6866151709109545e-03</internalNodes>
          <leafValues>
            -8.5297310352325439e-01 2.5456157326698303e-01</leafValues></_></weakClassifiers></_>
    <!-- stage 9 -->
    <_>
      <maxWeakCount>7</maxWeakCount>
      <stageThreshold>-1.0869661569595337e+00</stageThreshold>
      <weakClassifiers>
        <_>
          <internalNodes>
            0 -1 2 1.1333107016980648e-02</internalNodes>
          <leafValues>
            -8.1969159841537476e-01 1.4429615437984467e-01</leafValues></_>
        <_>
          <internalNodes>
            0 -1 32 4.3222114443778992e-02</internalNodes>
          <leafValues>
            -6.0976731777191162e-01 3.8778281211853027e-01</leafValues></_>
        <_>
          <internalNodes>
            0 -1 20 1.5752539038658142e-02</internalNodes>
          <leafValues>
            -8.7748420238494873e-01 2.1579690277576447e-01</leafValues></_>
        <_>
          <internalNodes>
            0 -1 34 2.1875161677598953e-02</internalNodes>
          <leafValues>
            -3.9368358254432678e-01 5.4806911945343018e-01</leafValues></_>
        <_>
          <internalNodes>
            0 -1 36 -8.2331628073006868e-04</internalNodes>
          <leafValues>
            -9.1151750087738037e-01 2.4906836450099945e-01</leafValues></_>
        <_>
          <internalNodes>
            0 -1 41 5.9661292470991611e-04</internalNodes>
          <leafValues>
            1.8393172323703766e-01 -9.0450066328048706e-01</leafValues></_>
        <_>
          <internalNodes>
            0 -1 53 1.8180105835199356e-03</internalNodes>
          <leafValues>
            -8.7660843133926392e-01 2.3540394008159637e-01</leafValues></_></weakClassifiers></_>
    <!-- stage 10 -->
    <_>
      <maxWeakCount>9</maxWeakCount>
      <stageThreshold>-1.4795566797256470e+00</stageThreshold>
      <weakClassifiers>
        <_>
          <internalNodes>
            0 -1 14 4.9533762037754059e-02</internalNodes>
          <leafValues>
            -5.6886506080627441e-01 4.2598462104797363e-01</leafValues></_>
        <_>
          <internalNodes>
            0 -1 61 1.4428174123167992e-02</internalNodes>
          <leafValues>
            -6.4561522006988525e-01 3.3459642529487610e-01</leafValues></_>
        <_>
          <internalNodes>
            0 -1 8 2.8008799999952316e-03</internalNodes>
          <leafValues>
            -8.0169010162353516e-01 2.3574075102806091e-01</leafValues></_>
        <_>
          <internalNodes>
            0 -1 22 -2.7170330286026001e-03</internalNodes>
          <leafValues>
            2.2415208816528320e-01 -8.4053444862365723e-01</leafValues></_>
        <_>
          <internalNodes>
            0 -1 58 -2.8221481479704380e-03</internalNodes>
          <leafValues>
            2.2740480303764343e-01 -8.2586938142776489e-01</leafValues></_>
        <_>
          <internalNodes>
            0 -1 28 -8.9339131955057383e-04</internalNodes>
          <leafValues>
            -8.8926625251770020e-01 1.6945073008537292e-01</leafValues></_>
        <_>
          <internalNodes>
            0 -1 48 9.7101199207827449e-04</internalNodes>
          <leafValues>
            -4.2605006694793701e-01 4.9365487694740295e-01</leafValues></_>
        <_>
          <internalNodes>
            0 -1 50 -1.8142269691452384e-03</internalNodes>
          <leafValues>
            -7.9427891969680786e-01 2.0782746374607086e-01</leafValues></_>
        <_>
          <internalNodes>
            0 -1 11 4.9676382914185524e-03</internalNodes>
          <leafValues>
            -8.9995694160461426e-01 2.0689117908477783e-01</leafValues></_></weakClassifiers></_>
    <!-- stage 11 -->
    <_>
      <maxWeakCount>9</maxWeakCount>
      <stageThreshold>-1.5943528413772583e+00</stageThreshold>
      <weakClassifiers>
        <_>
          <internalNodes>
            0 -1 69 4.8242667689919472e-03</internalNodes>
          <leafValues>
            -5.9394389390945435e-01 3.6139214038848877e-01</leafValues></_>
        <_>
          <internalNodes>
            0 -1 19 7.2504982352256775e-02</internalNodes>
          <leafValues>
            -7.2834843397140503e-01 2.8455165028572083e-01</leafValues></_>
        <_>
          <internalNodes>
            0 -1 24 5.1485843956470490e-02</internalNodes>
          <leafValues>
            -5.7568007707595825e-01 3.2508966326713562e-01</leafValues></_>
        <_>
          <internalNodes>
            0 -1 10 4.5372797176241875e-03</internalNodes>
          <leafValues>
            -5.5572104454040527e-01 3.6800801753997803e-01</leafValues></_>
        <_>
          <internalNodes>
            0 -1 45 3.0415647197514772e-03</internalNodes>
          <leafValues>
            -3.4909281134605408e-01 5.8066546916961670e-01</leafValues></_>
        <_>
          <internalNodes>
            0 -1 52 4.5093391090631485e-03</internalNodes>
          <leafValues>
            -4.0391901135444641e-01 5.8048182725906372e-01</leafValues></_>
        <_>
          <internalNodes>
            0 -1 47 1.0126470588147640e-03</internalNodes>
          <leafValues>
            2.9457193613052368e-01 -9.1714775562286377e-01</leafValues></_>
        <_>
          <internalNodes>
            0 -1 68 -6.9409171119332314e-03</internalNodes>
          <leafValues>
            2.6749947667121887e-01 -6.7162227630615234e-01</leafValues></_>
        <_>
          <internalNodes>
            0 -1 30 6.3111376948654652e-04</internalNodes>
          <leafValues>
            1.2052267789840698e-01 -9.0228629112243652e-01</leafValues></_></weakClassifiers></_></stages>
  <features>
    <_>
      <rects>
        <_>
          0 2 12 20 -1.</_>
        <_>
          6 2 6 20 2.</_></rects>
      <tilted>0</tilted></_>
    <_>
      <rects>
        <_>
          0 5 6 14 -1.</_>
        <_>
          3 5 3 14 2.</_></rects>
      <tilted>0</tilted></_>
    <_>
      <rects>
        <_>
          0 6 6 3 -1.</_>
        <_>
          3 6 3 3 2.</_></rects>
      <tilted>0</tilted></_>
    <_>
      <rects>
        <_>
          0 7 4 10 -1.</_>
        <_>
          2 7 2 10 2.</_></rects>
      <tilted>0</tilted></_>
    <_>
      <rects>
        <_>
          0 10 2 4 -1.</_>
        <_>
          1 10 1 4 2.</_></rects>
      <tilted>0</tilted></_>
    <_>
      <rects>
        <_>
          0 10 6 5 -1.</_>
        <_>
          2 10 2 5 3.</_></rects>
      <tilted>0</tilted></_>
    <_>
      <rects>
        <_>
          0 10 9 6 -1.</_>
        <_>
          3 10 3 6 3.</_></rects>
      <tilted>0</tilted></_>
    <_>
      <rects>
        <_>
          1 5 6 14 -1.</_>
        <_>
          4 5 3 14 2.</_></rects>
      <tilted>0</tilted></_>
    <_>
      <rects>
        <_>
          1 5 15 3 -1.</_>
        <_>
          6 5 5 3 3.</_></rects>
      <tilted>0</tilted></_>
    <_>
      <rects>
        <_>
          1 7 2 10 -1.</_>
        <_>
          2 7 1 10 2.</_></rects>
      <tilted>0</tilted></_>
    <_>
      <rects>
        <_>
          1 8 3 8 -1.</_>
        <_>
          2 8 1 8 3.</_></rects>
      <tilted>0</tilted></_>
    <_>
      <rects>
        <_>
          1 12 9 6 -1.</_>
        <_>
          4 12 3 6 3.</_></rects>
      <tilted>0</tilted></_>
    <_>
      <rects>
        <_>
          1 13 6 5 -1.</_>
        <_>
          4 13 3 5 2.</_></rects>
      <tilted>0</tilted></_>
    <_>
      <rects>
        <_>
          1 15 21 1 -1.</_>
        <_>
          8 15 7 1 3.</_></rects>
      <tilted>0</tilted></_>
    <_>
      <rects>
        <_>
          2 0 1 24 -1.</_>
        <_>
          2 8 1 8 3.</_></rects>
      <tilted>0</tilted></_>
    <_>
      <rects>
        <_>
          2 0 2 24 -1.</_>
        <_>
          2 8 2 8 3.</_></rects>
      <tilted>0</tilted></_>
    <_>
      <rects>
        <_>
          2 0 4 24 -1.</_>
        <_>
          2 8 4 8 3.</_></rects>
      <tilted>0</tilted></_>
    <_>
      <rects>
        <_>
          2 0 5 24 -1.</_>
        <_>
          2 8 5 8 3.</_></rects>
      <tilted>0</tilted></_>
    <_>
      <rects>
        <_>
          2 2 1 21 -1.</_>
        <_>
          2 9 1 7 3.</_></rects>
      <tilted>0</tilted></_>
    <_>
      <rects>
        <_>
          2 2 5 21 -1.</_>
        <_>
          2 9 5 7 3.</_></rects>
      <tilted>0</tilted></_>
    <_>
      <rects>
        <_>
          2 11 20 9 -1.</_>
        <_>
          2 14 20 3 3.</_></rects>
      <tilted>0</tilted></_>
    <_>
      <rects>
        <_>
          3 2 18 9 -1.</_>
        <_>
          3 5 18 3 3.</_></rects>
      <tilted>0</tilted></_>
    <_>
      <rects>
        <_>
          3 9 10 5 -1.</_>
        <_>
          8 9 5 5 2.</_></rects>
      <tilted>0</tilted></_>
    <_>
      <rects>
        <_>
          3 18 18 6 -1.</_>
        <_>
          3 21 18 3 2.</_></rects>
      <tilted>0</tilted></_>
    <_>
      <rects>
        <_>
          4 0 16 6 -1.</_>
        <_>
          4 3 16 3 2.</_></rects>
      <tilted>0</tilted></_>
    <_>
      <rects>
        <_>
          4 0 16 12 -1.</_>
        <_>
          4 4 16 4 3.</_></rects>
      <tilted>0</tilted></_>
    <_>
      <rects>
        <_>
          4 9 8 6 -1.</_>
        <_>
          8 9 4 6 2.</_></rects>
      <tilted>0</tilted></_>
    <_>
      <rects>
        <_>
          4 9 17 15 -1.</_>
        <_>
          4 14 17 5 3.</_></rects>
      <tilted>0</tilted></_>
    <_>
      <rects>
        <_>
          4 15 12 1 -1.</_>
        <_>
          10 15 6 1 2.</_></rects>
      <tilted>0</tilted></_>
    <_>
      <rects>
        <_>
          5 0 15 12 -1.</_>
        <_>
          5 4 15 4 3.</_></rects>
      <tilted>0</tilted></_>
    <_>
      <rects>
        <_>
          5 8 1 6 -1.</_>
        <_>
          5 11 1 3 2.</_></rects>
      <tilted>0</tilted></_>
    <_>
      <rects>
        <_>
          5 9 1 8 -1.</_>
        <_>
          5 13 1 4 2.</_></rects>
      <tilted>0</tilted></_>
    <_>
      <rects>
        <_>
          5 15 15 9 -1.</_>
        <_>
          5 18 15 3 3.</_></rects>
      <tilted>0</tilted></_>
    <_>
      <rects>
        <_>
          5 18 16 6 -1.</_>
        <_>
          5 21 16 3 2.</_></rects>
      <tilted>0</tilted></_>
    <_>
      <rects>
        <_>
          6 0 11 6 -1.</_>
        <_>
          6 2 11 2 3.</_></rects>
      <tilted>0</tilted></_>
    <_>
      <rects>
        <_>
          6 0 12 4 -1.</_>
        <_>
          6 2 12 2 2.</_></rects>
      <tilted>0</tilted></_>
    <_>
      <rects>
        <_>
          6 6 10 1 -1.</_>
        <_>
          11 6 5 1 2.</_></rects>
      <tilted>0</tilted></_>
    <_>
      <rects>
        <_>
          6 8 10 10 -1.</_>
        <_>
          6 13 10 5 2.</_></rects>
      <tilted>0</tilted></_>
    <_>
      <rects>
        <_>
          6 15 12 2 -1.</_>
        <_>
          10 15 4 2 3.</_></rects>
      <tilted>0</tilted></_>
    <_>
      <rects>
        <_>
          6 18 12 6 -1.</_>
        <_>
          6 20 12 2 3.</_></rects>
      <tilted>0</tilted></_>
    <_>
      <rects>
        <_>
          7 9 14 15 -1.</_>
        <_>
          7 14 14 5 3.</_></rects>
      <tilted>0</tilted></_>
    <_>
      <rects>
        <_>
          8 6 6 1 -1.</_>
        <_>
          11 6 3 1 2.</_></rects>
      <tilted>0</tilted></_>
    <_>
      <rects>
        <_>
          9 3 14 10 -1.</_>
        <_>
          9 3 7 5 2.</_>
        <_>
          16 8 7 5 2.</_></rects>
      <tilted>0</tilted></_>
    <_>
      <rects>
        <_>
          9 5 7 6 -1.</_>
        <_>
          9 8 7 3 2.</_></rects>
      <tilted>0</tilted></_>
    <_>
      <rects>
        <_>
          9 10 6 8 -1.</_>
        <_>
          9 14 6 4 2.</_></rects>
      <tilted>0</tilted></_>
    <_>
      <rects>
        <_>
          9 11 6 2 -1.</_>
        <_>
          11 11 2 2 3.</_></rects>
      <tilted>0</tilted></_>
    <_>
      <rects>
        <_>
          9 15 10 2 -1.</_>
        <_>
          14 15 5 2 2.</_></rects>
      <tilted>0</tilted></_>
    <_>
      <rects>
        <_>
          10 5 8 2 -1.</_>
        <_>
          14 5 4 2 2.</_></rects>
      <tilted>0</tilted></_>
    <_>
      <rects>
        <_>
          10 11 3 2 -1.</_>
        <_>
          11 11 1 2 3.</_></rects>
      <tilted>0</tilted></_>
    <_>
      <rects>
        <_>
          10 15 8 2 -1.</_>
        <_>
          14 15 4 2 2.</_></rects>
      <tilted>0</tilted></_>
    <_>
      <rects>
        <_>
          10 15 6 4 -1.</_>
        <_>
          10 17 6 2 2.</_></rects>
      <tilted>0</tilted></_>
    <_>
      <rects>
        <_>
          12 6 12 12 -1.</_>
        <_>
          16 6 4 12 3.</_></rects>
      <tilted>0</tilted></_>
    <_>
      <rects>
        <_>
          12 9 6 5 -1.</_>
        <_>
          14 9 2 5 3.</_></rects>
      <tilted>0</tilted></_>
    <_>
      <rects>
        <_>
          12 9 8 6 -1.</_>
        <_>
          16 9 4 6 2.</_></rects>
      <tilted>0</tilted></_>
    <_>
      <rects>
        <_>
          12 9 8 8 -1.</_>
        <_>
          12 13 8 4 2.</_></rects>
      <tilted>0</tilted></_>
    <_>
      <rects>
        <_>
          12 12 10 10 -1.</_>
        <_>
          12 12 5 5 2.</_>
        <_>
          17 17 5 5 2.</_></rects>
      <tilted>0</tilted></_>
    <_>
      <rects>
        <_>
          15 6 4 8 -1.</_>
        <_>
          15 10 4 4 2.</_></rects>
      <tilted>0</tilted></_>
    <_>
      <rects>
        <_>
          16 4 8 17 -1.</_>
        <_>
          20 4 4 17 2.</_></rects>
      <tilted>0</tilted></_>
    <_>
      <rects>
        <_>
          17 4 4 16 -1.</_>
        <_>
          19 4 2 16 2.</_></rects>
      <tilted>0</tilted></_>
    <_>
      <rects>
        <_>
          17 6 2 8 -1.</_>
        <_>
          17 10 2 4 2.</_></rects>
      <tilted>0</tilted></_>
    <_>
      <rects>
        <_>
          18 3 4 18 -1.</_>
        <_>
          18 9 4 6 3.</_></rects>
      <tilted>0</tilted></_>
    <_>
      <rects>
        <_>
          18 8 6 6 -1.</_>
        <_>
          20 8 2 6 3.</_></rects>
      <tilted>0</tilted></_>
    <_>
      <rects>
        <_>
          18 9 1 8 -1.</_>
        <_>
          18 13 1 4 2.</_></rects>
      <tilted>0</tilted></_>
    <_>
      <rects>
        <_>
          19 6 4 12 -1.</_>
        <_>
          21 6 2 12 2.</_></rects>
      <tilted>0</tilted></_>
    <_>
      <rects>
        <_>
          20 0 2 24 -1.</_>
        <_>
          20 8 2 8 3.</_></rects>
      <tilted>0</tilted></_>
    <_>
      <rects>
        <_>
          20 8 4 8 -1.</_>
        <_>
          22 8 2 8 2.</_></rects>
      <tilted>0</tilted></_>
    <_>
      <rects>
        <_>
          20 9 4 7 -1.</_>
        <_>
          22 9 2 7 2.</_></rects>
      <tilted>0</tilted></_>
    <_>
      <rects>
        <_>
          21 0 1 24 -1.</_>
        <_>
          21 8 1 8 3.</_></rects>
      <tilted>0</tilted></_>
    <_>
      <rects>
        <_>
          21 7 2 10 -1.</_>
        <_>
          22 7 1 10 2.</_></rects>
      <tilted>0</tilted></_>
    <_>
      <rects>
        <_>
          21 10 3 4 -1.</_>
        <_>
          22 10 1 4 3.</_></rects>
      <tilted>0</tilted></_>
    <_>
      <rects>
        <_>
          22 10 2 4 -1.</_>
        <_>
          23 10 1 4 2.</_></rects>
      <tilted>0</tilted></_></features></cascade>
</opencv_storage>
