<?xml version="1.0"?>
<opencv_storage>
<stage5>
  <maxWeakCount>5</maxWeakCount>
  <stageThreshold>-1.6428304910659790e+00</stageThreshold>
  <weakClassifiers>
    <_>
      <internalNodes>
        0 -1 161800 -6.1282003298401833e-03</internalNodes>
      <leafValues>
        5.3771287202835083e-01 -7.0054537057876587e-01</leafValues></_>
    <_>
      <internalNodes>
        0 -1 2560 1.2535010278224945e-01</internalNodes>
      <leafValues>
        -6.8769460916519165e-01 4.1931056976318359e-01</leafValues></_>
    <_>
      <internalNodes>
        0 -1 56647 8.7910637259483337e-02</internalNodes>
      <leafValues>
        -8.0914103984832764e-01 3.0217930674552917e-01</leafValues></_>
    <_>
      <internalNodes>
        0 -1 153934 6.6835654433816671e-04</internalNodes>
      <leafValues>
        2.6074239611625671e-01 -9.6805399656295776e-01</leafValues></_>
    <_>
      <internalNodes>
        0 -1 105761 -1.5322817489504814e-03</internalNodes>
      <leafValues>
        -8.8413834571838379e-01 2.9380822181701660e-01</leafValues></_></weakClassifiers></stage5>
</opencv_storage>
