<?xml version="1.0"?>
<opencv_storage>
<stage9>
  <maxWeakCount>7</maxWeakCount>
  <stageThreshold>-1.0869661569595337e+00</stageThreshold>
  <weakClassifiers>
    <_>
      <internalNodes>
        0 -1 5962 1.1333107016980648e-02</internalNodes>
      <leafValues>
        -8.1969159841537476e-01 1.4429615437984467e-01</leafValues></_>
    <_>
      <internalNodes>
        0 -1 69527 4.3222114443778992e-02</internalNodes>
      <leafValues>
        -6.0976731777191162e-01 3.8778281211853027e-01</leafValues></_>
    <_>
      <internalNodes>
        0 -1 34879 1.5752539038658142e-02</internalNodes>
      <leafValues>
        -8.7748420238494873e-01 2.1579690277576447e-01</leafValues></_>
    <_>
      <internalNodes>
        0 -1 71387 2.1875161677598953e-02</internalNodes>
      <leafValues>
        -3.9368358254432678e-01 5.4806911945343018e-01</leafValues></_>
    <_>
      <internalNodes>
        0 -1 75330 -8.2331628073006868e-04</internalNodes>
      <leafValues>
        -9.1151750087738037e-01 2.4906836450099945e-01</leafValues></_>
    <_>
      <internalNodes>
        0 -1 93789 5.9661292470991611e-04</internalNodes>
      <leafValues>
        1.8393172323703766e-01 -9.0450066328048706e-01</leafValues></_>
    <_>
      <internalNodes>
        0 -1 125584 1.8180105835199356e-03</internalNodes>
      <leafValues>
        -8.7660843133926392e-01 2.3540394008159637e-01</leafValues></_></weakClassifiers></stage9>
</opencv_storage>
